<?xml version="1.0" encoding="UTF-8"?>
<BIF VERSION="0.3"  xmlns="http://www.cs.ubc.ca/labs/lci/fopi/ve/XMLBIFv0_3"
	xmlns:xsi="http://www.w3.org/2001/XMLSchema-instance"
	xsi:schemaLocation="http://www.cs.ubc.ca/labs/lci/fopi/ve/XMLBIFv0_3 http://www.cs.ubc.ca/labs/lci/fopi/ve/XMLBIFv0_3/XMLBIFv0_3.xsd">
<NETWORK>
<NAME>Untitled</NAME>
<PROPERTY>detailed = </PROPERTY>
<PROPERTY>short = </PROPERTY>

<VARIABLE TYPE="nature">
	<NAME>Email Received</NAME>
	<OUTCOME>Business</OUTCOME>
	<OUTCOME>Personal</OUTCOME>
	<PROPERTY>position = (7453.85986328125, 5099.4599609375)</PROPERTY>
</VARIABLE>

<VARIABLE TYPE="nature">
	<NAME>Phishing Attack</NAME>
	<OUTCOME>T</OUTCOME>
	<OUTCOME>F</OUTCOME>
	<PROPERTY>position = (7560.93017578125, 5452.79052734375)</PROPERTY>
</VARIABLE>

<VARIABLE TYPE="nature">
	<NAME>Mallicious Content</NAME>
	<OUTCOME>T</OUTCOME>
	<OUTCOME>F</OUTCOME>
	<PROPERTY>position = (7487.5126953125, 5304.421875)</PROPERTY>
</VARIABLE>

<VARIABLE TYPE="nature">
	<NAME>Maintenance</NAME>
	<OUTCOME>T</OUTCOME>
	<OUTCOME>F</OUTCOME>
	<PROPERTY>position = (8319.7138671875, 5250.47314453125)</PROPERTY>
</VARIABLE>

<VARIABLE TYPE="nature">
	<NAME>Firewall</NAME>
	<OUTCOME>T</OUTCOME>
	<OUTCOME>F</OUTCOME>
	<PROPERTY>position = (8172.8740234375, 5429.43310546875)</PROPERTY>
</VARIABLE>

<VARIABLE TYPE="nature">
	<NAME>Out of Date</NAME>
	<OUTCOME>T</OUTCOME>
	<OUTCOME>F</OUTCOME>
	<PROPERTY>position = (8471.140625, 5435.55078125)</PROPERTY>
</VARIABLE>

<VARIABLE TYPE="nature">
	<NAME>Holiday</NAME>
	<OUTCOME>T</OUTCOME>
	<OUTCOME>F</OUTCOME>
	<PROPERTY>position = (7955.560546875, 5087.22265625)</PROPERTY>
</VARIABLE>

<VARIABLE TYPE="nature">
	<NAME>Attack Happening</NAME>
	<OUTCOME>T</OUTCOME>
	<OUTCOME>F</OUTCOME>
	<PROPERTY>position = (7834.7236328125, 5471.14599609375)</PROPERTY>
</VARIABLE>

<VARIABLE TYPE="nature">
	<NAME>DDoS</NAME>
	<OUTCOME>T</OUTCOME>
	<OUTCOME>F</OUTCOME>
	<PROPERTY>position = (7966.26806640625, 5333.4833984375)</PROPERTY>
</VARIABLE>

<VARIABLE TYPE="nature">
	<NAME>Alert</NAME>
	<OUTCOME>T</OUTCOME>
	<OUTCOME>F</OUTCOME>
	<PROPERTY>position = (7678.34423828125, 5623.37255859375)</PROPERTY>
</VARIABLE>

<VARIABLE TYPE="nature">
	<NAME>Attack Stopped</NAME>
	<OUTCOME>T</OUTCOME>
	<OUTCOME>F</OUTCOME>
	<PROPERTY>position = (7539.6015625, 5752.77685546875)</PROPERTY>
</VARIABLE>

<VARIABLE TYPE="nature">
	<NAME>Logged</NAME>
	<OUTCOME>Correctly</OUTCOME>
	<OUTCOME>Incorrectly</OUTCOME>
	<PROPERTY>position = (7943.8232421875, 5650.0537109375)</PROPERTY>
</VARIABLE>

<VARIABLE TYPE="nature">
	<NAME>Website visited</NAME>
	<OUTCOME>Clean</OUTCOME>
	<OUTCOME>Dodgey</OUTCOME>
	<PROPERTY>position = (7693.0185546875, 5097.751953125)</PROPERTY>
</VARIABLE>

<VARIABLE TYPE="nature">
	<NAME>Virus</NAME>
	<OUTCOME>T</OUTCOME>
	<OUTCOME>F</OUTCOME>
	<PROPERTY>position = (7715.69775390625, 5300.529296875)</PROPERTY>
</VARIABLE>

<DEFINITION>
	<FOR>Email Received</FOR>
	<TABLE>0.75 0.25</TABLE>
</DEFINITION>

<DEFINITION>
	<FOR>Phishing Attack</FOR>
	<GIVEN>Mallicious Content</GIVEN>
	<TABLE>0.97 0.03 0.03 0.97</TABLE>
</DEFINITION>

<DEFINITION>
	<FOR>Mallicious Content</FOR>
	<GIVEN>Email Received</GIVEN>
	<TABLE>0.4 0.6 0.15 0.85</TABLE>
</DEFINITION>

<DEFINITION>
	<FOR>Maintenance</FOR>
	<TABLE>0.2 0.8</TABLE>
</DEFINITION>

<DEFINITION>
	<FOR>Firewall</FOR>
	<GIVEN>Maintenance</GIVEN>
	<TABLE>0.95 0.05 1.0 0.0</TABLE>
</DEFINITION>

<DEFINITION>
	<FOR>Out of Date</FOR>
	<GIVEN>Maintenance</GIVEN>
	<TABLE>0.02 0.98 0.02 0.98</TABLE>
</DEFINITION>

<DEFINITION>
	<FOR>Holiday</FOR>
	<TABLE>0.277 0.723</TABLE>
</DEFINITION>

<DEFINITION>
	<FOR>Attack Happening</FOR>
	<GIVEN>Phishing Attack</GIVEN>
	<GIVEN>Firewall</GIVEN>
	<GIVEN>DDoS</GIVEN>
	<GIVEN>Virus</GIVEN>
	<TABLE>0.6 0.4 0.5 0.5 0.5 0.5 0.4 0.6 0.95 0.05 0.9 0.1 0.8 0.2 0.75 0.25 0.66 0.34 0.6 0.4 0.3 0.7 0.05 0.95 0.85 0.15 0.8 0.2 0.7 0.3 0.1 0.9</TABLE>
</DEFINITION>

<DEFINITION>
	<FOR>DDoS</FOR>
	<GIVEN>Holiday</GIVEN>
	<TABLE>0.4 0.6 0.1 0.9</TABLE>
</DEFINITION>

<DEFINITION>
	<FOR>Alert</FOR>
	<GIVEN>Attack Happening</GIVEN>
	<TABLE>0.8 0.2 0.2 0.8</TABLE>
</DEFINITION>

<DEFINITION>
	<FOR>Attack Stopped</FOR>
	<GIVEN>Alert</GIVEN>
	<TABLE>0.9 0.1 0.4 0.6</TABLE>
</DEFINITION>

<DEFINITION>
	<FOR>Logged</FOR>
	<GIVEN>Attack Happening</GIVEN>
	<TABLE>0.7 0.3 0.7 0.3</TABLE>
</DEFINITION>

<DEFINITION>
	<FOR>Website visited</FOR>
	<TABLE>0.9 0.1</TABLE>
</DEFINITION>

<DEFINITION>
	<FOR>Virus</FOR>
	<GIVEN>Website visited</GIVEN>
	<TABLE>0.05 0.95 0.7 0.3</TABLE>
</DEFINITION>
</NETWORK>
</BIF>
